#pragma once
#include <cstdarg>
//new test using 15 minutes of my own data for tryng to correct the too much sensibility found in previous test with model_all
namespace Eloquent {
    namespace ML {
        namespace Port {
            class DecisionTree {
                public:
                    /**
                    * Predict class for features vector
                    */
                    int predict(float *x) {
                        if (x[17] <= 14.229154109954834) {
                            if (x[16] <= 15.686278343200684) {
                                if (x[8] <= 131.99999237060547) {
                                    return 3;
                                }

                                else {
                                    if (x[0] <= 117.88234329223633) {
                                        if (x[20] <= 4.3844475746154785) {
                                            return 3;
                                        }

                                        else {
                                            if (x[3] <= 2.336071014404297) {
                                                return 0;
                                            }

                                            else {
                                                return 2;
                                            }
                                        }
                                    }

                                    else {
                                        return 2;
                                    }
                                }
                            }

                            else {
                                if (x[9] <= 15.240691184997559) {
                                    if (x[8] <= 68.4705924987793) {
                                        if (x[16] <= 50.980398178100586) {
                                            if (x[13] <= 3.3632044792175293) {
                                                return 3;
                                            }

                                            else {
                                                return 2;
                                            }
                                        }

                                        else {
                                            if (x[9] <= 12.685946464538574) {
                                                return 1;
                                            }

                                            else {
                                                return 2;
                                            }
                                        }
                                    }

                                    else {
                                        if (x[8] <= 167.99999237060547) {
                                            return 1;
                                        }

                                        else {
                                            return 0;
                                        }
                                    }
                                }

                                else {
                                    if (x[14] <= 5.072665691375732) {
                                        if (x[2] <= 36.640567779541016) {
                                            if (x[21] <= 81.75790023803711) {
                                                return 2;
                                            }

                                            else {
                                                if (x[6] <= 2.03427317738533) {
                                                    return 1;
                                                }

                                                else {
                                                    return 2;
                                                }
                                            }
                                        }

                                        else {
                                            return 0;
                                        }
                                    }

                                    else {
                                        if (x[0] <= 117.8823471069336) {
                                            if (x[16] <= 360.78431701660156) {
                                                return 2;
                                            }

                                            else {
                                                return 0;
                                            }
                                        }

                                        else {
                                            return 0;
                                        }
                                    }
                                }
                            }
                        }

                        else {
                            if (x[9] <= 16.61002254486084) {
                                if (x[1] <= 14.472933292388916) {
                                    if (x[10] <= 10.77799654006958) {
                                        if (x[17] <= 34.093332290649414) {
                                            if (x[8] <= 68.4705810546875) {
                                                if (x[16] <= 31.3725528717041) {
                                                    if (x[16] <= 31.37254810333252) {
                                                        return 3;
                                                    }

                                                    else {
                                                        if (x[9] <= 7.4495930671691895) {
                                                            return 2;
                                                        }

                                                        else {
                                                            return 3;
                                                        }
                                                    }
                                                }

                                                else {
                                                    if (x[21] <= 12.444902420043945) {
                                                        return 3;
                                                    }

                                                    else {
                                                        if (x[19] <= 94.27358627319336) {
                                                            return 1;
                                                        }

                                                        else {
                                                            return 2;
                                                        }
                                                    }
                                                }
                                            }

                                            else {
                                                if (x[3] <= 5.463688850402832) {
                                                    if (x[0] <= 48.705875396728516) {
                                                        if (x[8] <= 110.11764526367188) {
                                                            if (x[13] <= 0.7608887255191803) {
                                                                return 1;
                                                            }

                                                            else {
                                                                return 1;
                                                            }
                                                        }

                                                        else {
                                                            if (x[18] <= 78.59613037109375) {
                                                                return 2;
                                                            }

                                                            else {
                                                                return 1;
                                                            }
                                                        }
                                                    }

                                                    else {
                                                        return 1;
                                                    }
                                                }

                                                else {
                                                    if (x[21] <= 42.592864990234375) {
                                                        return 2;
                                                    }

                                                    else {
                                                        return 1;
                                                    }
                                                }
                                            }
                                        }

                                        else {
                                            if (x[9] <= 10.93387508392334) {
                                                if (x[8] <= 336.70587158203125) {
                                                    if (x[2] <= 6.097916603088379) {
                                                        if (x[1] <= 9.525063037872314) {
                                                            if (x[14] <= 3.2415531873703003) {
                                                                return 1;
                                                            }

                                                            else {
                                                                return 1;
                                                            }
                                                        }

                                                        else {
                                                            if (x[17] <= 152.5174102783203) {
                                                                return 1;
                                                            }

                                                            else {
                                                                return 1;
                                                            }
                                                        }
                                                    }

                                                    else {
                                                        if (x[16] <= 160.78430938720703) {
                                                            if (x[0] <= 42.352943420410156) {
                                                                return 1;
                                                            }

                                                            else {
                                                                return 1;
                                                            }
                                                        }

                                                        else {
                                                            if (x[14] <= 3.072465181350708) {
                                                                return 1;
                                                            }

                                                            else {
                                                                return 1;
                                                            }
                                                        }
                                                    }
                                                }

                                                else {
                                                    if (x[23] <= 43.94963455200195) {
                                                        return 0;
                                                    }

                                                    else {
                                                        return 1;
                                                    }
                                                }
                                            }

                                            else {
                                                if (x[17] <= 186.76197052001953) {
                                                    if (x[1] <= 7.236493110656738) {
                                                        if (x[2] <= 6.888932228088379) {
                                                            if (x[10] <= 7.799339532852173) {
                                                                return 1;
                                                            }

                                                            else {
                                                                return 1;
                                                            }
                                                        }

                                                        else {
                                                            if (x[21] <= 61.49264717102051) {
                                                                return 2;
                                                            }

                                                            else {
                                                                return 1;
                                                            }
                                                        }
                                                    }

                                                    else {
                                                        if (x[16] <= 264.7058868408203) {
                                                            if (x[0] <= 31.05882453918457) {
                                                                return 2;
                                                            }

                                                            else {
                                                                return 2;
                                                            }
                                                        }

                                                        else {
                                                            if (x[20] <= 96.5117416381836) {
                                                                return 1;
                                                            }

                                                            else {
                                                                return 2;
                                                            }
                                                        }
                                                    }
                                                }

                                                else {
                                                    if (x[16] <= 58.82353401184082) {
                                                        if (x[2] <= 5.6128458976745605) {
                                                            return 1;
                                                        }

                                                        else {
                                                            if (x[20] <= 81.00349426269531) {
                                                                return 2;
                                                            }

                                                            else {
                                                                return 1;
                                                            }
                                                        }
                                                    }

                                                    else {
                                                        if (x[12] <= 5.090189695358276) {
                                                            return 1;
                                                        }

                                                        else {
                                                            if (x[8] <= 524.4705810546875) {
                                                                return 1;
                                                            }

                                                            else {
                                                                return 0;
                                                            }
                                                        }
                                                    }
                                                }
                                            }
                                        }
                                    }

                                    else {
                                        if (x[17] <= 219.69046783447266) {
                                            if (x[8] <= 71.29411315917969) {
                                                if (x[4] <= 2.8235294818878174) {
                                                    if (x[10] <= 13.879445552825928) {
                                                        if (x[1] <= 8.276522636413574) {
                                                            return 1;
                                                        }

                                                        else {
                                                            if (x[2] <= 3.9171152114868164) {
                                                                return 2;
                                                            }

                                                            else {
                                                                return 1;
                                                            }
                                                        }
                                                    }

                                                    else {
                                                        return 2;
                                                    }
                                                }

                                                else {
                                                    if (x[19] <= 119.08108520507812) {
                                                        if (x[15] <= 1.5149670839309692) {
                                                            return 2;
                                                        }

                                                        else {
                                                            return 2;
                                                        }
                                                    }

                                                    else {
                                                        return 1;
                                                    }
                                                }
                                            }

                                            else {
                                                if (x[8] <= 235.76470184326172) {
                                                    if (x[10] <= 11.751094818115234) {
                                                        if (x[3] <= 3.35461688041687) {
                                                            if (x[2] <= 3.548709750175476) {
                                                                return 1;
                                                            }

                                                            else {
                                                                return 2;
                                                            }
                                                        }

                                                        else {
                                                            return 2;
                                                        }
                                                    }

                                                    else {
                                                        return 2;
                                                    }
                                                }

                                                else {
                                                    return 0;
                                                }
                                            }
                                        }

                                        else {
                                            if (x[8] <= 69.8823471069336) {
                                                if (x[3] <= 5.1255645751953125) {
                                                    return 1;
                                                }

                                                else {
                                                    return 2;
                                                }
                                            }

                                            else {
                                                if (x[8] <= 98.11763763427734) {
                                                    return 2;
                                                }

                                                else {
                                                    if (x[12] <= 9.206155776977539) {
                                                        return 1;
                                                    }

                                                    else {
                                                        return 0;
                                                    }
                                                }
                                            }
                                        }
                                    }
                                }

                                else {
                                    if (x[16] <= 582.3529357910156) {
                                        if (x[17] <= 344.14915466308594) {
                                            if (x[8] <= 278.1176452636719) {
                                                if (x[0] <= 48.00000190734863) {
                                                    if (x[12] <= 3.9930719137191772) {
                                                        if (x[1] <= 25.60503578186035) {
                                                            if (x[10] <= 8.368473052978516) {
                                                                return 1;
                                                            }

                                                            else {
                                                                return 2;
                                                            }
                                                        }

                                                        else {
                                                            if (x[20] <= 93.37931442260742) {
                                                                return 2;
                                                            }

                                                            else {
                                                                return 1;
                                                            }
                                                        }
                                                    }

                                                    else {
                                                        if (x[15] <= 0.33828532695770264) {
                                                            return 1;
                                                        }

                                                        else {
                                                            if (x[12] <= 4.235292434692383) {
                                                                return 2;
                                                            }

                                                            else {
                                                                return 2;
                                                            }
                                                        }
                                                    }
                                                }

                                                else {
                                                    if (x[0] <= 226.58824157714844) {
                                                        if (x[1] <= 18.083186149597168) {
                                                            if (x[17] <= 220.88877868652344) {
                                                                return 2;
                                                            }

                                                            else {
                                                                return 1;
                                                            }
                                                        }

                                                        else {
                                                            return 2;
                                                        }
                                                    }

                                                    else {
                                                        if (x[19] <= 84.77751541137695) {
                                                            if (x[20] <= 77.0530776977539) {
                                                                return 2;
                                                            }

                                                            else {
                                                                return 0;
                                                            }
                                                        }

                                                        else {
                                                            if (x[3] <= 7.220080137252808) {
                                                                return 0;
                                                            }

                                                            else {
                                                                return 0;
                                                            }
                                                        }
                                                    }
                                                }
                                            }

                                            else {
                                                if (x[6] <= 3.1160526275634766) {
                                                    if (x[0] <= 146.82353401184082) {
                                                        return 2;
                                                    }

                                                    else {
                                                        return 0;
                                                    }
                                                }

                                                else {
                                                    return 0;
                                                }
                                            }
                                        }

                                        else {
                                            if (x[1] <= 39.82174110412598) {
                                                if (x[11] <= 7.461310863494873) {
                                                    return 1;
                                                }

                                                else {
                                                    if (x[16] <= 343.13724517822266) {
                                                        return 2;
                                                    }

                                                    else {
                                                        return 0;
                                                    }
                                                }
                                            }

                                            else {
                                                if (x[0] <= 157.41177368164062) {
                                                    return 2;
                                                }

                                                else {
                                                    return 0;
                                                }
                                            }
                                        }
                                    }

                                    else {
                                        if (x[8] <= 268.941162109375) {
                                            if (x[11] <= 7.114276170730591) {
                                                if (x[0] <= 380.4705810546875) {
                                                    if (x[15] <= 5.040722370147705) {
                                                        if (x[10] <= 5.903351306915283) {
                                                            return 1;
                                                        }

                                                        else {
                                                            if (x[10] <= 5.9033522605896) {
                                                                return 2;
                                                            }

                                                            else {
                                                                return 1;
                                                            }
                                                        }
                                                    }

                                                    else {
                                                        if (x[7] <= 6.217026710510254) {
                                                            return 2;
                                                        }

                                                        else {
                                                            return 0;
                                                        }
                                                    }
                                                }

                                                else {
                                                    return 0;
                                                }
                                            }

                                            else {
                                                if (x[17] <= 343.0438537597656) {
                                                    if (x[1] <= 25.911005973815918) {
                                                        return 2;
                                                    }

                                                    else {
                                                        return 0;
                                                    }
                                                }

                                                else {
                                                    if (x[8] <= 148.23528289794922) {
                                                        return 1;
                                                    }

                                                    else {
                                                        if (x[7] <= 11.18460750579834) {
                                                            return 2;
                                                        }

                                                        else {
                                                            return 0;
                                                        }
                                                    }
                                                }
                                            }
                                        }

                                        else {
                                            if (x[8] <= 392.4705810546875) {
                                                if (x[18] <= 242.06963348388672) {
                                                    if (x[18] <= 234.04391479492188) {
                                                        return 0;
                                                    }

                                                    else {
                                                        return 0;
                                                    }
                                                }

                                                else {
                                                    return 1;
                                                }
                                            }

                                            else {
                                                return 0;
                                            }
                                        }
                                    }
                                }
                            }

                            else {
                                if (x[15] <= 8.900051593780518) {
                                    if (x[8] <= 283.05882263183594) {
                                        if (x[0] <= 277.41175842285156) {
                                            if (x[16] <= 939.2156677246094) {
                                                if (x[6] <= 10.406414031982422) {
                                                    if (x[9] <= 27.211121559143066) {
                                                        if (x[8] <= 56.47058296203613) {
                                                            if (x[1] <= 12.042092323303223) {
                                                                return 1;
                                                            }

                                                            else {
                                                                return 2;
                                                            }
                                                        }

                                                        else {
                                                            if (x[17] <= 352.3878936767578) {
                                                                return 2;
                                                            }

                                                            else {
                                                                return 2;
                                                            }
                                                        }
                                                    }

                                                    else {
                                                        if (x[9] <= 90.48661422729492) {
                                                            if (x[8] <= 200.47058868408203) {
                                                                return 2;
                                                            }

                                                            else {
                                                                return 2;
                                                            }
                                                        }

                                                        else {
                                                            if (x[9] <= 101.8350944519043) {
                                                                return 2;
                                                            }

                                                            else {
                                                                return 0;
                                                            }
                                                        }
                                                    }
                                                }

                                                else {
                                                    if (x[1] <= 59.450571060180664) {
                                                        if (x[16] <= 407.8431396484375) {
                                                            return 2;
                                                        }

                                                        else {
                                                            if (x[4] <= 11.97922134399414) {
                                                                return 0;
                                                            }

                                                            else {
                                                                return 2;
                                                            }
                                                        }
                                                    }

                                                    else {
                                                        if (x[3] <= 20.840627670288086) {
                                                            if (x[16] <= 180.39215087890625) {
                                                                return 2;
                                                            }

                                                            else {
                                                                return 0;
                                                            }
                                                        }

                                                        else {
                                                            if (x[12] <= 13.167194843292236) {
                                                                return 0;
                                                            }

                                                            else {
                                                                return 0;
                                                            }
                                                        }
                                                    }
                                                }
                                            }

                                            else {
                                                if (x[9] <= 26.039459228515625) {
                                                    if (x[5] <= 13.689899444580078) {
                                                        if (x[17] <= 234.66827392578125) {
                                                            if (x[1] <= 22.7360897064209) {
                                                                return 1;
                                                            }

                                                            else {
                                                                return 0;
                                                            }
                                                        }

                                                        else {
                                                            if (x[13] <= 6.511828660964966) {
                                                                return 1;
                                                            }

                                                            else {
                                                                return 1;
                                                            }
                                                        }
                                                    }

                                                    else {
                                                        return 0;
                                                    }
                                                }

                                                else {
                                                    if (x[16] <= 1311.7647094726562) {
                                                        if (x[1] <= 47.00541687011719) {
                                                            if (x[17] <= 135.2482452392578) {
                                                                return 0;
                                                            }

                                                            else {
                                                                return 2;
                                                            }
                                                        }

                                                        else {
                                                            if (x[20] <= 132.0876579284668) {
                                                                return 0;
                                                            }

                                                            else {
                                                                return 2;
                                                            }
                                                        }
                                                    }

                                                    else {
                                                        if (x[17] <= 459.4972686767578) {
                                                            if (x[1] <= 28.82553482055664) {
                                                                return 1;
                                                            }

                                                            else {
                                                                return 0;
                                                            }
                                                        }

                                                        else {
                                                            if (x[16] <= 2182.3529052734375) {
                                                                return 2;
                                                            }

                                                            else {
                                                                return 1;
                                                            }
                                                        }
                                                    }
                                                }
                                            }
                                        }

                                        else {
                                            if (x[0] <= 371.2941131591797) {
                                                if (x[9] <= 29.13760757446289) {
                                                    if (x[23] <= 44.0943603515625) {
                                                        return 2;
                                                    }

                                                    else {
                                                        if (x[10] <= 17.811677932739258) {
                                                            return 0;
                                                        }

                                                        else {
                                                            if (x[2] <= 12.208680152893066) {
                                                                return 0;
                                                            }

                                                            else {
                                                                return 2;
                                                            }
                                                        }
                                                    }
                                                }

                                                else {
                                                    if (x[12] <= 7.986147165298462) {
                                                        return 0;
                                                    }

                                                    else {
                                                        if (x[4] <= 13.495792865753174) {
                                                            if (x[1] <= 59.65187644958496) {
                                                                return 0;
                                                            }

                                                            else {
                                                                return 2;
                                                            }
                                                        }

                                                        else {
                                                            return 0;
                                                        }
                                                    }
                                                }
                                            }

                                            else {
                                                return 0;
                                            }
                                        }
                                    }

                                    else {
                                        if (x[8] <= 333.1764678955078) {
                                            if (x[16] <= 270.58824157714844) {
                                                if (x[0] <= 242.8235321044922) {
                                                    if (x[20] <= 99.58782958984375) {
                                                        return 2;
                                                    }

                                                    else {
                                                        if (x[8] <= 317.6470642089844) {
                                                            return 0;
                                                        }

                                                        else {
                                                            return 0;
                                                        }
                                                    }
                                                }

                                                else {
                                                    return 0;
                                                }
                                            }

                                            else {
                                                if (x[0] <= 246.35294342041016) {
                                                    if (x[1] <= 28.749351501464844) {
                                                        if (x[7] <= 0.7919706553220749) {
                                                            return 0;
                                                        }

                                                        else {
                                                            return 1;
                                                        }
                                                    }

                                                    else {
                                                        if (x[18] <= 376.3491668701172) {
                                                            return 0;
                                                        }

                                                        else {
                                                            return 1;
                                                        }
                                                    }
                                                }

                                                else {
                                                    return 0;
                                                }
                                            }
                                        }

                                        else {
                                            if (x[23] <= 145.17359924316406) {
                                                if (x[16] <= 3419.6077880859375) {
                                                    return 0;
                                                }

                                                else {
                                                    return 1;
                                                }
                                            }

                                            else {
                                                if (x[4] <= 12.061839580535889) {
                                                    if (x[0] <= 306.3529510498047) {
                                                        return 1;
                                                    }

                                                    else {
                                                        return 0;
                                                    }
                                                }

                                                else {
                                                    return 0;
                                                }
                                            }
                                        }
                                    }
                                }

                                else {
                                    if (x[13] <= 14.308216094970703) {
                                        if (x[8] <= 252.70587921142578) {
                                            if (x[0] <= 214.5882339477539) {
                                                if (x[2] <= 18.22988796234131) {
                                                    if (x[16] <= 925.4901733398438) {
                                                        if (x[5] <= 0.679141640663147) {
                                                            return 0;
                                                        }

                                                        else {
                                                            if (x[9] <= 103.8440933227539) {
                                                                return 2;
                                                            }

                                                            else {
                                                                return 0;
                                                            }
                                                        }
                                                    }

                                                    else {
                                                        if (x[1] <= 24.620287895202637) {
                                                            if (x[22] <= 23.784685134887695) {
                                                                return 2;
                                                            }

                                                            else {
                                                                return 0;
                                                            }
                                                        }

                                                        else {
                                                            return 0;
                                                        }
                                                    }
                                                }

                                                else {
                                                    if (x[14] <= 9.197783946990967) {
                                                        if (x[16] <= 1403.9215087890625) {
                                                            if (x[20] <= 26.675813674926758) {
                                                                return 0;
                                                            }

                                                            else {
                                                                return 2;
                                                            }
                                                        }

                                                        else {
                                                            if (x[20] <= 136.1363868713379) {
                                                                return 0;
                                                            }

                                                            else {
                                                                return 1;
                                                            }
                                                        }
                                                    }

                                                    else {
                                                        if (x[9] <= 35.245079040527344) {
                                                            if (x[16] <= 501.96080017089844) {
                                                                return 2;
                                                            }

                                                            else {
                                                                return 0;
                                                            }
                                                        }

                                                        else {
                                                            return 0;
                                                        }
                                                    }
                                                }
                                            }

                                            else {
                                                if (x[14] <= 6.679729461669922) {
                                                    if (x[6] <= 9.984532833099365) {
                                                        return 0;
                                                    }

                                                    else {
                                                        return 0;
                                                    }
                                                }

                                                else {
                                                    return 0;
                                                }
                                            }
                                        }

                                        else {
                                            if (x[8] <= 285.1764678955078) {
                                                if (x[16] <= 290.1960754394531) {
                                                    if (x[0] <= 309.1764602661133) {
                                                        return 2;
                                                    }

                                                    else {
                                                        return 0;
                                                    }
                                                }

                                                else {
                                                    return 0;
                                                }
                                            }

                                            else {
                                                if (x[16] <= 2786.2745361328125) {
                                                    return 0;
                                                }

                                                else {
                                                    return 0;
                                                }
                                            }
                                        }
                                    }

                                    else {
                                        if (x[11] <= 20.725467681884766) {
                                            if (x[0] <= 196.23529052734375) {
                                                if (x[8] <= 226.58824157714844) {
                                                    if (x[9] <= 72.03021621704102) {
                                                        return 0;
                                                    }

                                                    else {
                                                        return 2;
                                                    }
                                                }

                                                else {
                                                    return 0;
                                                }
                                            }

                                            else {
                                                return 0;
                                            }
                                        }

                                        else {
                                            if (x[12] <= 19.20207691192627) {
                                                if (x[8] <= 72.70589065551758) {
                                                    if (x[0] <= 128.47058868408203) {
                                                        if (x[19] <= 110.0993537902832) {
                                                            return 2;
                                                        }

                                                        else {
                                                            return 0;
                                                        }
                                                    }

                                                    else {
                                                        return 0;
                                                    }
                                                }

                                                else {
                                                    return 0;
                                                }
                                            }

                                            else {
                                                return 0;
                                            }
                                        }
                                    }
                                }
                            }
                        }
                    }

                protected:
                };
            }
        }
    }

